GenomeStart 1
Neuron 1 1 0.00000000 1 0.00000000 0.00000000 0.00000000 0.00000000
Neuron 2 1 0.00000000 1 0.00000000 0.00000000 0.00000000 0.00000000
Neuron 3 1 0.00000000 1 0.00000000 0.00000000 0.00000000 0.00000000
Neuron 4 1 0.00000000 1 0.00000000 0.00000000 0.00000000 0.00000000
Neuron 5 1 0.00000000 1 0.00000000 0.00000000 0.00000000 0.00000000
Neuron 6 1 0.00000000 1 0.00000000 0.00000000 0.00000000 0.00000000
Neuron 7 1 0.00000000 1 0.00000000 0.00000000 0.00000000 0.00000000
Neuron 8 1 0.00000000 1 0.00000000 0.00000000 0.00000000 0.00000000
Neuron 9 1 0.00000000 1 0.00000000 0.00000000 0.00000000 0.00000000
Neuron 10 2 0.00000000 1 0.00000000 0.00000000 0.00000000 0.00000000
Neuron 11 4 1.00000000 2 1.00000000 0.00000000 0.00000000 -0.39945677
Neuron 12 4 1.00000000 2 1.00000000 0.00000000 0.00000000 -0.55269021
Neuron 13 4 1.00000000 2 1.00000000 0.00000000 0.00000000 -0.42023988
Neuron 14 4 1.00000000 2 1.00000000 0.00000000 0.00000000 -0.23215430
Neuron 15 4 1.00000000 2 1.00000000 0.00000000 0.00000000 -0.06070132
Neuron 16 4 1.00000000 2 1.00000000 0.00000000 0.00000000 -0.56965850
Neuron 17 4 1.00000000 2 1.00000000 0.00000000 0.00000000 0.14880825
Neuron 18 4 1.00000000 2 1.00000000 0.00000000 0.00000000 -0.80291147
Neuron 19 4 1.00000000 2 1.00000000 0.00000000 0.00000000 -0.11392560
Neuron 20 4 1.00000000 2 1.00000000 0.00000000 0.00000000 -0.48460341
Neuron 21 4 1.00000000 2 1.00000000 0.00000000 0.00000000 0.30484939
Neuron 22 4 1.00000000 2 1.00000000 0.00000000 0.00000000 -0.07019257
Neuron 23 4 1.00000000 2 1.00000000 0.00000000 0.00000000 0.74852748
Neuron 24 4 1.00000000 2 1.00000000 0.00000000 0.00000000 0.50294504
Neuron 25 4 1.00000000 2 1.00000000 0.00000000 0.00000000 0.53358562
Neuron 26 3 0.50000000 2 1.00000000 0.00000000 0.00000000 -0.13171789
Neuron 27 3 0.50000000 2 1.00000000 0.00000000 0.00000000 -0.57139805
Neuron 28 3 0.50000000 2 1.00000000 0.00000000 0.00000000 -0.45838801
Neuron 29 3 0.50000000 2 1.00000000 0.00000000 0.00000000 0.45390179
Neuron 30 3 0.50000000 2 1.00000000 0.00000000 0.00000000 0.11453597
Neuron 31 3 0.50000000 2 1.00000000 0.00000000 0.00000000 -0.37434004
Neuron 32 3 0.50000000 2 1.00000000 0.00000000 0.00000000 -0.04367199
Neuron 33 3 0.50000000 2 1.00000000 0.00000000 0.00000000 0.27127903
Neuron 34 3 0.50000000 2 1.00000000 0.00000000 0.00000000 0.04837184
Neuron 35 3 0.50000000 2 1.00000000 0.00000000 0.00000000 -0.46058535
Link 1 26 1 0 0.51939451
Link 2 26 2 0 0.14014100
Link 3 26 3 0 -0.09179968
Link 4 26 4 0 0.09295938
Link 5 26 5 0 -0.03186132
Link 6 26 6 0 0.64906766
Link 7 26 7 0 0.03103732
Link 8 26 8 0 -0.10678426
Link 9 26 9 0 -0.26114689
Link 10 26 10 0 0.51353496
Link 1 27 11 0 0.47587512
Link 2 27 12 0 -0.30948820
Link 3 27 13 0 -0.62910855
Link 4 27 14 0 -0.88079470
Link 5 27 15 0 0.49528489
Link 6 27 16 0 -0.21115757
Link 7 27 17 0 -0.11926634
Link 8 27 18 0 0.14539018
Link 9 27 19 0 -0.01712088
Link 10 27 20 0 0.26209296
Link 1 28 21 0 -0.78511917
Link 2 28 22 0 -0.35737175
Link 3 28 23 0 0.17658010
Link 4 28 24 0 0.28229621
Link 5 28 25 0 0.20340587
Link 6 28 26 0 0.61149937
Link 7 28 27 0 -0.13849300
Link 8 28 28 0 -0.05221717
Link 9 28 29 0 0.01251259
Link 10 28 30 0 0.08020264
Link 1 29 31 0 0.07351909
Link 2 29 32 0 0.61140782
Link 3 29 33 0 -0.90191351
Link 4 29 34 0 -0.31705679
Link 5 29 35 0 0.30188910
Link 6 29 36 0 -0.29169591
Link 7 29 37 0 -0.34122745
Link 8 29 38 0 0.73821223
Link 9 29 39 0 -0.80736717
Link 10 29 40 0 0.08444472
Link 1 30 41 0 -0.41111484
Link 2 30 42 0 -0.17371136
Link 3 30 43 0 -0.24820704
Link 4 30 44 0 -0.17557299
Link 5 30 45 0 -0.06823939
Link 6 30 46 0 -0.13183996
Link 7 30 47 0 0.04821924
Link 8 30 48 0 0.57994324
Link 9 30 49 0 -0.16736351
Link 10 30 50 0 -0.29688406
Link 1 31 51 0 -0.58305612
Link 2 31 52 0 -0.60255745
Link 3 31 53 0 -0.00787378
Link 4 31 54 0 -0.83294168
Link 5 31 55 0 0.16229743
Link 6 31 56 0 0.04672384
Link 7 31 57 0 0.61903745
Link 8 31 58 0 -0.32941679
Link 9 31 59 0 -0.23914304
Link 10 31 60 0 -0.15118870
Link 1 32 61 0 0.88354137
Link 2 32 62 0 0.27713858
Link 3 32 63 0 0.56483657
Link 4 32 64 0 0.00402844
Link 5 32 65 0 -0.12955107
Link 6 32 66 0 0.28104495
Link 7 32 67 0 0.00488296
Link 8 32 68 0 0.42036195
Link 9 32 69 0 0.03231910
Link 10 32 70 0 0.28580584
Link 1 33 71 0 0.29352702
Link 2 33 72 0 0.04129154
Link 3 33 73 0 0.14233833
Link 4 33 74 0 0.78215888
Link 5 33 75 0 0.62810144
Link 6 33 76 0 0.67421491
Link 7 33 77 0 -0.25226600
Link 8 33 78 0 0.22598956
Link 9 33 79 0 -0.10611286
Link 10 33 80 0 0.31830805
Link 1 34 81 0 0.12274545
Link 2 34 82 0 -0.38312937
Link 3 34 83 0 -0.13260292
Link 4 34 84 0 -0.00720237
Link 5 34 85 0 -0.27823725
Link 6 34 86 0 -0.42420728
Link 7 34 87 0 -0.08069094
Link 8 34 88 0 0.06515702
Link 9 34 89 0 0.13257241
Link 10 34 90 0 -0.07644887
Link 1 35 91 0 0.21762749
Link 2 35 92 0 0.07895138
Link 3 35 93 0 -0.47077853
Link 4 35 94 0 -0.24127934
Link 5 35 95 0 0.43095187
Link 6 35 96 0 0.08227790
Link 7 35 97 0 -0.37446211
Link 8 35 98 0 0.03585925
Link 9 35 99 0 -0.06869716
Link 10 35 100 0 0.45570238
Link 26 11 101 0 0.12784204
Link 27 11 102 0 0.64354381
Link 28 11 103 0 -0.50233467
Link 29 11 104 0 0.24039430
Link 30 11 105 0 -0.31174657
Link 31 11 106 0 -0.01736503
Link 32 11 107 0 -0.48121586
Link 33 11 108 0 -0.03363140
Link 34 11 109 0 0.35795160
Link 35 11 110 0 0.04428236
Link 26 12 111 0 0.69640187
Link 27 12 112 0 -0.01950133
Link 28 12 113 0 -0.45997497
Link 29 12 114 0 -0.01187170
Link 30 12 115 0 -0.75170141
Link 31 12 116 0 0.27472762
Link 32 12 117 0 0.44288461
Link 33 12 118 0 -0.77962584
Link 34 12 119 0 -0.38834803
Link 35 12 120 0 0.81408124
Link 26 13 121 0 0.03308206
Link 27 13 122 0 -0.02801599
Link 28 13 123 0 -0.35416730
Link 29 13 124 0 0.36478774
Link 30 13 125 0 0.48875393
Link 31 13 126 0 -0.62340159
Link 32 13 127 0 -0.66417432
Link 33 13 128 0 -0.17737358
Link 34 13 129 0 0.15237892
Link 35 13 130 0 0.04898221
Link 26 14 131 0 -0.00479141
Link 27 14 132 0 0.04083377
Link 28 14 133 0 -0.01565600
Link 29 14 134 0 -0.83712271
Link 30 14 135 0 -0.03076266
Link 31 14 136 0 -0.84179205
Link 32 14 137 0 0.51570177
Link 33 14 138 0 0.02935881
Link 34 14 139 0 -0.16199225
Link 35 14 140 0 0.42753380
Link 26 15 141 0 0.30143132
Link 27 15 142 0 0.17462691
Link 28 15 143 0 0.11978515
Link 29 15 144 0 0.54319895
Link 30 15 145 0 -0.12634663
Link 31 15 146 0 -0.08142338
Link 32 15 147 0 -0.52626118
Link 33 15 148 0 -0.53025910
Link 34 15 149 0 0.19455550
Link 35 15 150 0 0.45246742
Link 26 16 151 0 -0.59663686
Link 27 16 152 0 -0.22998749
Link 28 16 153 0 -0.39033174
Link 29 16 154 0 0.41740165
Link 30 16 155 0 -0.54042177
Link 31 16 156 0 -0.56715598
Link 32 16 157 0 0.30100406
Link 33 16 158 0 -0.01770074
Link 34 16 159 0 -0.05630665
Link 35 16 160 0 0.20169683
Link 26 17 161 0 0.23999756
Link 27 17 162 0 0.42207099
Link 28 17 163 0 0.11066012
Link 29 17 164 0 -0.59761345
Link 30 17 165 0 -0.35908078
Link 31 17 166 0 0.19550157
Link 32 17 167 0 0.87221900
Link 33 17 168 0 -0.72856838
Link 34 17 169 0 -0.08630634
Link 35 17 170 0 0.52388073
Link 26 18 171 0 -0.00018311
Link 27 18 172 0 -0.21579638
Link 28 18 173 0 -0.88274789
Link 29 18 174 0 0.46861171
Link 30 18 175 0 -0.17188025
Link 31 18 176 0 -0.01721244
Link 32 18 177 0 -0.08740501
Link 33 18 178 0 -0.49037141
Link 34 18 179 0 -0.54228339
Link 35 18 180 0 -0.19553209
Link 26 19 181 0 0.01580859
Link 27 19 182 0 -0.37650685
Link 28 19 183 0 -0.54142888
Link 29 19 184 0 0.40961943
Link 30 19 185 0 0.15140233
Link 31 19 186 0 -0.13858455
Link 32 19 187 0 0.07290872
Link 33 19 188 0 0.00976592
Link 34 19 189 0 0.50517289
Link 35 19 190 0 0.42744224
Link 26 20 191 0 -0.08148442
Link 27 20 192 0 0.19605090
Link 28 20 193 0 -0.32245857
Link 29 20 194 0 -0.74349193
Link 30 20 195 0 0.19171728
Link 31 20 196 0 -0.23310038
Link 32 20 197 0 0.13666189
Link 33 20 198 0 0.09289834
Link 34 20 199 0 0.37061678
Link 35 20 200 0 0.05658132
Link 26 21 201 0 0.17136143
Link 27 21 202 0 0.06772057
Link 28 21 203 0 0.41822565
Link 29 21 204 0 -0.23703726
Link 30 21 205 0 0.34452345
Link 31 21 206 0 0.77773370
Link 32 21 207 0 -0.51457259
Link 33 21 208 0 -0.72405164
Link 34 21 209 0 0.44599750
Link 35 21 210 0 -0.13702811
Link 26 22 211 0 -0.88567766
Link 27 22 212 0 -0.49455245
Link 28 22 213 0 -0.05423139
Link 29 22 214 0 0.08508560
Link 30 22 215 0 0.94134342
Link 31 22 216 0 0.20938749
Link 32 22 217 0 -0.05273598
Link 33 22 218 0 -0.09445479
Link 34 22 219 0 -0.10010071
Link 35 22 220 0 -0.17792291
Link 26 23 221 0 -0.35975219
Link 27 23 222 0 -0.43653676
Link 28 23 223 0 -0.07562487
Link 29 23 224 0 -0.21781060
Link 30 23 225 0 0.25403607
Link 31 23 226 0 0.65407270
Link 32 23 227 0 0.15243995
Link 33 23 228 0 0.36097293
Link 34 23 229 0 -0.48942534
Link 35 23 230 0 0.20657979
Link 26 24 231 0 0.62865078
Link 27 24 232 0 -0.00985748
Link 28 24 233 0 -0.42228462
Link 29 24 234 0 -0.73754082
Link 30 24 235 0 -0.49269082
Link 31 24 236 0 0.09042634
Link 32 24 237 0 -0.47776727
Link 33 24 238 0 0.95361187
Link 34 24 239 0 -0.24417859
Link 35 24 240 0 0.39927366
Link 26 25 241 0 -0.73720511
Link 27 25 242 0 0.08005005
Link 28 25 243 0 -0.64232307
Link 29 25 244 0 0.79924924
Link 30 25 245 0 0.02343822
Link 31 25 246 0 0.18878750
Link 32 25 247 0 0.01559496
Link 33 25 248 0 -0.35410627
Link 34 25 249 0 0.28641621
Link 35 25 250 0 0.15131077
GenomeEnd

