GenomeStart 18
Neuron 1 1 0.00000000 1 0.00000000 0.00000000 0.00000000 0.00000000
Neuron 2 1 0.00000000 1 0.00000000 0.00000000 0.00000000 0.00000000
Neuron 3 1 0.00000000 1 0.00000000 0.00000000 0.00000000 0.00000000
Neuron 4 1 0.00000000 1 0.00000000 0.00000000 0.00000000 0.00000000
Neuron 5 2 0.00000000 1 0.00000000 0.00000000 0.00000000 0.00000000
Neuron 6 4 1.00000000 2 1.00000000 0.00000000 0.00000000 0.21304971
Neuron 7 4 1.00000000 2 1.00000000 0.00000000 0.00000000 0.73479415
Neuron 8 4 1.00000000 2 1.00000000 0.00000000 0.00000000 -0.21341594
Neuron 9 4 1.00000000 2 1.00000000 0.00000000 0.00000000 -0.33262123
Neuron 10 4 1.00000000 2 1.00000000 0.00000000 0.00000000 -0.12680441
Neuron 11 4 1.00000000 2 1.00000000 0.00000000 0.00000000 0.03805658
Neuron 12 3 0.50000000 2 1.00000000 0.00000000 0.00000000 0.01586962
Neuron 13 3 0.50000000 2 1.00000000 0.00000000 0.00000000 -0.06097598
Neuron 14 3 0.50000000 2 1.00000000 0.00000000 0.00000000 0.20874660
Neuron 15 3 0.50000000 2 1.00000000 0.00000000 0.00000000 -0.19617298
Neuron 16 3 0.50000000 2 1.00000000 0.00000000 0.00000000 0.17215491
Link 1 12 1 0 -0.26755577
Link 2 12 2 0 -0.71053194
Link 3 12 3 0 -0.02291940
Link 4 12 4 0 -0.00088504
Link 5 12 5 0 0.74040956
Link 1 13 6 0 0.03125095
Link 2 13 7 0 -0.24961089
Link 3 13 8 0 0.39933470
Link 4 13 9 0 -0.61745048
Link 5 13 10 0 -0.30866420
Link 1 14 11 0 -0.59562975
Link 2 14 12 0 -0.33936583
Link 3 14 13 0 -0.01577807
Link 4 14 14 0 -0.40421766
Link 5 14 15 0 0.53657643
Link 1 15 16 0 0.11856441
Link 2 15 17 0 0.24463637
Link 3 15 18 0 0.26987518
Link 4 15 19 0 0.34772790
Link 5 15 20 0 -0.01489303
Link 1 16 21 0 -0.57460250
Link 2 16 22 0 -0.04916532
Link 3 16 23 0 0.56181524
Link 4 16 24 0 0.15240944
Link 5 16 25 0 0.05056917
Link 12 6 26 0 -0.21082186
Link 13 6 27 0 -0.23514512
Link 14 6 28 0 -0.16852321
Link 15 6 29 0 0.71343120
Link 16 6 30 0 -0.43574328
Link 12 7 31 0 0.09402753
Link 13 7 32 0 0.28638569
Link 14 7 33 0 -0.70961638
Link 15 7 34 0 -0.91232032
Link 16 7 35 0 0.56358531
Link 12 8 36 0 -0.19507431
Link 13 8 37 0 -0.48539689
Link 14 8 38 0 -0.27597888
Link 15 8 39 0 -0.00885037
Link 16 8 40 0 -0.69356365
Link 12 9 41 0 0.44090091
Link 13 9 42 0 0.05215613
Link 14 9 43 0 -0.00433363
Link 15 9 44 0 -0.15164647
Link 16 9 45 0 -0.24988556
Link 12 10 46 0 0.27149266
Link 13 10 47 0 -0.54307688
Link 14 10 48 0 -0.11365093
Link 15 10 49 0 0.10129093
Link 16 10 50 0 0.11307108
Link 12 11 51 0 -0.32227546
Link 13 11 52 0 0.40812403
Link 14 11 53 0 0.32236702
Link 15 11 54 0 0.05786309
Link 16 11 55 0 -0.11633656
GenomeEnd

