GenomeStart 2
Neuron 1 1 0.00000000 1 0.00000000 0.00000000 0.00000000 0.00000000
Neuron 2 1 0.00000000 1 0.00000000 0.00000000 0.00000000 0.00000000
Neuron 3 1 0.00000000 1 0.00000000 0.00000000 0.00000000 0.00000000
Neuron 4 1 0.00000000 1 0.00000000 0.00000000 0.00000000 0.00000000
Neuron 5 1 0.00000000 1 0.00000000 0.00000000 0.00000000 0.00000000
Neuron 6 1 0.00000000 1 0.00000000 0.00000000 0.00000000 0.00000000
Neuron 7 1 0.00000000 1 0.00000000 0.00000000 0.00000000 0.00000000
Neuron 8 1 0.00000000 1 0.00000000 0.00000000 0.00000000 0.00000000
Neuron 9 1 0.00000000 1 0.00000000 0.00000000 0.00000000 0.00000000
Neuron 10 2 0.00000000 1 0.00000000 0.00000000 0.00000000 0.00000000
Neuron 11 4 1.00000000 2 1.00000000 0.00000000 0.00000000 0.38911100
Neuron 12 4 1.00000000 2 1.00000000 0.00000000 0.00000000 -0.13138218
Neuron 13 4 1.00000000 2 1.00000000 0.00000000 0.00000000 0.52443007
Neuron 14 4 1.00000000 2 1.00000000 0.00000000 0.00000000 -0.24317148
Neuron 15 4 1.00000000 2 1.00000000 0.00000000 0.00000000 0.20975372
Neuron 16 4 1.00000000 2 1.00000000 0.00000000 0.00000000 0.05148473
Neuron 17 4 1.00000000 2 1.00000000 0.00000000 0.00000000 0.15930662
Neuron 18 4 1.00000000 2 1.00000000 0.00000000 0.00000000 -0.31540880
Neuron 19 4 1.00000000 2 1.00000000 0.00000000 0.00000000 0.29712821
Neuron 20 4 1.00000000 2 1.00000000 0.00000000 0.00000000 -0.21149327
Neuron 21 4 1.00000000 2 1.00000000 0.00000000 0.00000000 0.16168706
Neuron 22 4 1.00000000 2 1.00000000 0.00000000 0.00000000 0.33887753
Neuron 23 4 1.00000000 2 1.00000000 0.00000000 0.00000000 -0.30634480
Neuron 24 4 1.00000000 2 1.00000000 0.00000000 0.00000000 0.24292734
Neuron 25 4 1.00000000 2 1.00000000 0.00000000 0.00000000 0.03128147
Neuron 26 3 0.50000000 2 1.00000000 0.00000000 0.00000000 -0.50169378
Neuron 27 3 0.50000000 2 1.00000000 0.00000000 0.00000000 -0.06155583
Neuron 28 3 0.50000000 2 1.00000000 0.00000000 0.00000000 0.04705954
Neuron 29 3 0.50000000 2 1.00000000 0.00000000 0.00000000 0.49095126
Neuron 30 3 0.50000000 2 1.00000000 0.00000000 0.00000000 -0.05014191
Neuron 31 3 0.50000000 2 1.00000000 0.00000000 0.00000000 0.64516129
Neuron 32 3 0.50000000 2 1.00000000 0.00000000 0.00000000 -0.49430830
Neuron 33 3 0.50000000 2 1.00000000 0.00000000 0.00000000 -0.68520157
Neuron 34 3 0.50000000 2 1.00000000 0.00000000 0.00000000 -0.05816828
Neuron 35 3 0.50000000 2 1.00000000 0.00000000 0.00000000 -0.41962951
Link 1 26 1 0 -0.42362743
Link 2 26 2 0 -0.26935636
Link 3 26 3 0 -0.09445479
Link 4 26 4 0 0.07327494
Link 5 26 5 0 -0.43644520
Link 6 26 6 0 0.56962798
Link 7 26 7 0 0.85610523
Link 8 26 8 0 0.53743095
Link 9 26 9 0 0.74040956
Link 10 26 10 0 0.47163305
Link 1 27 11 0 0.58192694
Link 2 27 12 0 -0.14825892
Link 3 27 13 0 -0.58192694
Link 4 27 14 0 0.51905881
Link 5 27 15 0 -0.64448988
Link 6 27 16 0 0.24936674
Link 7 27 17 0 0.72475356
Link 8 27 18 0 0.14624470
Link 9 27 19 0 -0.38224433
Link 10 27 20 0 0.47929319
Link 1 28 21 0 0.43354595
Link 2 28 22 0 0.59285257
Link 3 28 23 0 0.05609302
Link 4 28 24 0 -0.49012726
Link 5 28 25 0 0.29074984
Link 6 28 26 0 0.85665456
Link 7 28 27 0 0.18274483
Link 8 28 28 0 -0.26813562
Link 9 28 29 0 -0.15607166
Link 10 28 30 0 -0.85302286
Link 1 29 31 0 0.41257973
Link 2 29 32 0 -0.33863338
Link 3 29 33 0 -0.22989593
Link 4 29 34 0 -0.16220588
Link 5 29 35 0 0.64162114
Link 6 29 36 0 -0.85674612
Link 7 29 37 0 -0.29636525
Link 8 29 38 0 -0.07947020
Link 9 29 39 0 0.32493057
Link 10 29 40 0 0.05410932
Link 1 30 41 0 -0.43525498
Link 2 30 42 0 -0.04248177
Link 3 30 43 0 0.05465865
Link 4 30 44 0 0.50523392
Link 5 30 45 0 -0.61275063
Link 6 30 46 0 0.53508103
Link 7 30 47 0 -0.36155278
Link 8 30 48 0 -0.45396283
Link 9 30 49 0 0.64702292
Link 10 30 50 0 -0.78362377
Link 1 31 51 0 0.67732780
Link 2 31 52 0 0.36707663
Link 3 31 53 0 0.08975494
Link 4 31 54 0 -0.00491348
Link 5 31 55 0 0.64387951
Link 6 31 56 0 0.00302133
Link 7 31 57 0 -0.94058046
Link 8 31 58 0 0.24790185
Link 9 31 59 0 0.46043275
Link 10 31 60 0 0.53608814
Link 1 32 61 0 0.32633442
Link 2 32 62 0 0.18805506
Link 3 32 63 0 -0.42289499
Link 4 32 64 0 -0.20120853
Link 5 32 65 0 0.41505173
Link 6 32 66 0 0.81826228
Link 7 32 67 0 -0.44996490
Link 8 32 68 0 0.57734916
Link 9 32 69 0 0.43266091
Link 10 32 70 0 0.38401440
Link 1 33 71 0 0.11944945
Link 2 33 72 0 -0.68529313
Link 3 33 73 0 -0.60304575
Link 4 33 74 0 -0.67351299
Link 5 33 75 0 0.78771325
Link 6 33 76 0 0.31373028
Link 7 33 77 0 0.06451613
Link 8 33 78 0 -0.26413770
Link 9 33 79 0 -0.10251167
Link 10 33 80 0 -0.55989257
Link 1 34 81 0 0.25876644
Link 2 34 82 0 0.30445265
Link 3 34 83 0 -0.78997162
Link 4 34 84 0 0.32590716
Link 5 34 85 0 0.69817194
Link 6 34 86 0 -0.22046571
Link 7 34 87 0 -0.01687674
Link 8 34 88 0 -0.92785424
Link 9 34 89 0 0.32428968
Link 10 34 90 0 -0.08319346
Link 1 35 91 0 -0.45084994
Link 2 35 92 0 0.45240638
Link 3 35 93 0 0.13006989
Link 4 35 94 0 -0.06653035
Link 5 35 95 0 0.39353618
Link 6 35 96 0 -0.38435011
Link 7 35 97 0 -0.51228370
Link 8 35 98 0 -0.53889584
Link 9 35 99 0 -0.26755577
Link 10 35 100 0 -0.71053194
Link 26 11 101 0 -0.02291940
Link 27 11 102 0 -0.00088504
Link 28 11 103 0 -0.40870388
Link 29 11 104 0 -0.51667837
Link 30 11 105 0 -0.28644673
Link 31 11 106 0 -0.13238929
Link 32 11 107 0 -0.61745048
Link 33 11 108 0 -0.30866420
Link 34 11 109 0 -0.82366405
Link 35 11 110 0 -0.33936583
Link 26 12 111 0 -0.01577807
Link 27 12 112 0 -0.40421766
Link 28 12 113 0 0.53657643
Link 29 12 114 0 0.19937742
Link 30 12 115 0 -0.68251595
Link 31 12 116 0 0.26987518
Link 32 12 117 0 0.48530534
Link 33 12 118 0 -0.01489303
Link 34 12 119 0 -0.57460250
Link 35 12 120 0 -0.11871700
Link 26 13 121 0 0.56181524
Link 27 13 122 0 0.15240944
Link 28 13 123 0 0.05056917
Link 29 13 124 0 -0.10513627
Link 30 13 125 0 -0.01834162
Link 31 13 126 0 -0.07770013
Link 32 13 127 0 0.71343120
Link 33 13 128 0 -0.22397534
Link 34 13 129 0 -0.03521836
Link 35 13 130 0 0.55543687
Link 26 14 131 0 -0.70961638
Link 27 14 132 0 0.19385357
Link 28 14 133 0 0.56358531
Link 29 14 134 0 -0.19507431
Link 30 14 135 0 0.09195227
Link 31 14 136 0 -0.27597888
Link 32 14 137 0 -0.00885037
Link 33 14 138 0 -0.13006989
Link 34 14 139 0 0.44090091
Link 35 14 140 0 0.05215613
Link 26 15 141 0 0.44935453
Link 27 15 142 0 -0.15164647
Link 28 15 143 0 -0.24988556
Link 29 15 144 0 -0.32303842
Link 30 15 145 0 -0.54307688
Link 31 15 146 0 -0.30970183
Link 32 15 147 0 0.10129093
Link 33 15 148 0 0.11307108
Link 34 15 149 0 -0.32227546
Link 35 15 150 0 0.65095981
Link 26 16 151 0 0.32236702
Link 27 16 152 0 -0.40552995
Link 28 16 153 0 0.24860378
Link 29 16 154 0 0.24375134
Link 30 16 155 0 0.56617939
Link 31 16 156 0 0.27756584
Link 32 16 157 0 -0.39231544
Link 33 16 158 0 0.69371624
Link 34 16 159 0 0.38831751
Link 35 16 160 0 -0.05597095
Link 26 17 161 0 -0.17731254
Link 27 17 162 0 -0.10977508
Link 28 17 163 0 0.32541887
Link 29 17 164 0 0.20441298
Link 30 17 165 0 0.41862239
Link 31 17 166 0 -0.15948973
Link 32 17 167 0 -0.02697836
Link 33 17 168 0 -0.79921873
Link 34 17 169 0 -0.29377117
Link 35 17 170 0 -0.37751396
Link 26 18 171 0 0.56416517
Link 27 18 172 0 -0.18976409
Link 28 18 173 0 -0.38993500
Link 29 18 174 0 -0.16187017
Link 30 18 175 0 0.04687643
Link 31 18 176 0 -0.65221107
Link 32 18 177 0 -0.00344859
Link 33 18 178 0 0.56627094
Link 34 18 179 0 -0.33710746
Link 35 18 180 0 -0.23047578
Link 26 19 181 0 0.50202948
Link 27 19 182 0 0.81609546
Link 28 19 183 0 0.02545244
Link 29 19 184 0 -0.62416456
Link 30 19 185 0 -0.13882870
Link 31 19 186 0 -0.52012696
Link 32 19 187 0 -0.30249947
Link 33 19 188 0 0.01452681
Link 34 19 189 0 0.73479415
Link 35 19 190 0 -0.21341594
Link 26 20 191 0 0.26978362
Link 27 20 192 0 -0.21631520
Link 28 20 193 0 0.03805658
Link 29 20 194 0 -0.74541459
Link 30 20 195 0 -0.06097598
Link 31 20 196 0 0.23526719
Link 32 20 197 0 0.76882229
Link 33 20 198 0 0.14493240
Link 34 20 199 0 -0.41392254
Link 35 20 200 0 0.07776116
Link 26 21 201 0 0.33545946
Link 27 21 202 0 -0.58555864
Link 28 21 203 0 0.35395367
Link 29 21 204 0 0.37961974
Link 30 21 205 0 -0.61494797
Link 31 21 206 0 0.16898099
Link 32 21 207 0 -0.27405622
Link 33 21 208 0 0.27228614
Link 34 21 209 0 0.13183996
Link 35 21 210 0 -0.38367870
Link 26 22 211 0 0.10397656
Link 27 22 212 0 0.15329447
Link 28 22 213 0 0.18478957
Link 29 22 214 0 -0.48048341
Link 30 22 215 0 -0.11368145
Link 31 22 216 0 0.38944670
Link 32 22 217 0 -0.12387463
Link 33 22 218 0 0.14990692
Link 34 22 219 0 0.04614399
Link 35 22 220 0 -0.48020875
Link 26 23 221 0 0.08938871
Link 27 23 222 0 -0.25986511
Link 28 23 223 0 0.20938749
Link 29 23 224 0 -0.04092532
Link 30 23 225 0 -0.41257973
Link 31 23 226 0 -0.56242561
Link 32 23 227 0 0.23288675
Link 33 23 228 0 0.20047609
Link 34 23 229 0 -0.15927610
Link 35 23 230 0 -0.24277474
Link 26 24 231 0 -0.71739860
Link 27 24 232 0 -0.48109378
Link 28 24 233 0 -0.64470351
Link 29 24 234 0 0.53480636
Link 30 24 235 0 0.41184729
Link 31 24 236 0 0.17438276
Link 32 24 237 0 -0.49903867
Link 33 24 238 0 0.37998596
Link 34 24 239 0 0.63896603
Link 35 24 240 0 0.11453597
Link 26 25 241 0 -0.16055788
Link 27 25 242 0 -0.37046419
Link 28 25 243 0 -0.47401349
Link 29 25 244 0 0.17847224
Link 30 25 245 0 -0.04748680
Link 31 25 246 0 -0.19959105
Link 32 25 247 0 0.25647755
Link 33 25 248 0 -0.20072024
Link 34 25 249 0 -0.22998749
Link 35 25 250 0 -0.45716727
GenomeEnd

